{"fc2_weight": [[-0.05006752163171768, 0.09573391079902649, -0.12075470387935638, -0.07015945017337799, -0.02615547925233841, -0.05971229821443558, 0.10154326260089874, 0.045599162578582764, -0.06218230724334717, -0.03805171698331833, 0.03346238285303116, -0.0942896157503128, -0.027836093679070473, 0.03971930593252182, 0.06141093000769615, 0.0768088549375534, 0.03690244257450104, 0.06834491342306137, -0.016576960682868958, -0.04034612700343132, -0.010965720750391483, 0.0525432825088501, -0.10034424066543579, -0.022755376994609833, 0.0841878280043602, -0.10928580164909363, -0.13134980201721191, -0.09002026915550232, -0.001549098757095635, 0.034300945699214935, 0.11548730731010437, -0.1021711528301239, 0.11951898783445358, 0.05166247487068176, 0.06738566607236862, -0.04587635397911072, -0.03151548281311989, -0.04274648800492287, -0.01205870509147644, -0.052412617951631546, 0.09014017134904861, -0.03300919011235237, 0.06714821606874466, 0.03534422814846039, 0.10667911916971207, -0.05572919547557831, -0.04332096129655838, 0.06751038134098053, -0.07668567448854446, 0.08407407253980637, -0.056624624878168106, -0.011800210922956467, 0.07408157736063004, -0.05051805078983307, 0.05322261527180672, -0.0438617505133152, -0.002458501374348998, -0.012470499612390995, -0.05986007675528526, 0.07357026636600494, 0.05798927694559097, 0.034643735736608505, 0.026805037632584572, 0.055063508450984955, -0.11745008826255798, -0.027936669066548347, 0.07048197835683823, 0.01841622218489647, 0.04729847237467766, 0.02152945101261139, -0.0271376371383667, 0.00852764118462801, 0.0837269276380539, 0.026894589886069298, -0.05335768684744835, 0.09566288441419601, 0.055736009031534195, -0.08948677778244019, -0.010366784408688545, 0.042199987918138504, 0.07724186033010483, -0.03674817830324173, -0.10640572011470795, -0.011436178348958492, 0.019415751099586487, 0.002649992471560836, -0.04779563471674919, 0.018820133060216904, -0.1529908925294876, -0.10184121131896973, 0.05315961316227913, -0.049554675817489624, -0.0075808241963386536, 0.005511533003300428, 0.12321271002292633, 0.01880558952689171, 0.02206345833837986, -0.029309812933206558, 0.017260974273085594, 0.0030983772594481707, 0.022490665316581726, 0.013684583827853203, -0.05460836738348007, -0.09575572609901428, -0.054378826171159744, 0.024436740204691887, -0.034262944012880325, -0.0333273708820343, -0.13746048510074615, -0.005646849051117897, -0.03565837815403938, 0.08148303627967834, 0.09657635539770126, 0.00909366738051176, 0.020496465265750885, -0.007853195071220398, -0.038304056972265244, 0.055069275200366974, 0.09749554842710495, -0.011285336688160896, -0.053246285766363144, 0.09837981313467026, 0.05621568113565445, 0.03753549978137016, 0.013144767843186855, -0.021199172362685204, 0.016843751072883606, -0.022306375205516815], [-0.0054681445471942425, -0.00715581513941288, 0.02445729821920395, 0.04877784103155136, -0.05805816501379013, -0.0410999171435833, -0.09227745234966278, 0.011091163381934166, 0.061000239104032516, 0.07826803624629974, 0.027735941112041473, 0.04822320491075516, -0.06444628536701202, -0.06665334105491638, 0.011746488511562347, 0.05656007304787636, -0.045990508049726486, -0.0009829177288338542, -0.09620440751314163, 0.0475347563624382, 0.027064289897680283, -0.0006642075604759157, -0.027949487790465355, 0.014595599845051765, 0.03519301116466522, 0.05873698368668556, 0.054113615304231644, 0.01751667819917202, 0.016464250162243843, -0.09673115611076355, 0.15014289319515228, 0.01812061294913292, 0.09529482573270798, 0.02781880646944046, 0.04205761477351189, 0.0833580270409584, 0.06681492924690247, 0.08123724162578583, -0.09355952590703964, 0.016967838630080223, 0.09330693632364273, -0.08766142278909683, 0.026405323296785355, -0.08758237212896347, 0.06722967326641083, -0.019864430651068687, -0.0764075517654419, 0.07969871908426285, -0.09009324014186859, -0.00016695170779712498, 0.09594114124774933, -0.07045792043209076, -0.11973444372415543, 0.07652038335800171, 0.006461255252361298, -0.1258394420146942, -0.1458849012851715, 0.02092389017343521, -0.0684182345867157, -0.05417904257774353, 0.006053393706679344, -0.04925531521439552, 0.03300678730010986, -0.04132729768753052, 0.04267743229866028, -0.06976256519556046, -0.11728063225746155, 0.0793074369430542, -0.030915869399905205, -0.044976212084293365, 0.020151173695921898, 0.043434012681245804, -0.09883370995521545, -0.014664800837635994, -0.08447908610105515, -0.054331205785274506, -0.04081237316131592, 0.035437602549791336, -0.130611851811409, -0.0760454535484314, 0.10304137319326401, -0.052348144352436066, -0.09124691039323807, -0.06448467075824738, -0.0065268054604530334, -0.040639884769916534, 0.07412105053663254, -0.019879881292581558, 0.028653455898165703, 0.05750181898474693, -0.09282655268907547, -0.01802205853164196, 0.012155096046626568, 0.015636049211025238, 0.04618079215288162, 0.012759804725646973, 0.010040211491286755, 0.10433486104011536, -0.12779328227043152, -0.07786806672811508, -0.05709689483046532, 0.09103819727897644, -0.03430050611495972, 0.0018257295014336705, 0.0686865821480751, -0.07893010973930359, -0.043586764484643936, 0.07393238693475723, 0.11228267848491669, 0.00328739732503891, -0.03319547697901726, -0.11186296492815018, 0.1435859054327011, -0.06350331008434296, -0.15436901152133942, -0.1392289698123932, 0.06906215846538544, -0.02253827080130577, -0.03875147923827171, -0.0913926288485527, -0.018091071397066116, 0.10115428268909454, -0.11237131059169769, 0.10084801912307739, -0.031167715787887573, 0.09721498191356659, 0.06493908911943436, -0.07569600641727448], [0.15990185737609863, -0.09244487434625626, -0.038725800812244415, -0.04769735038280487, -0.020077185705304146, -0.05148285627365112, -0.07161162793636322, -0.04301268607378006, -0.10879077762365341, 0.009103302843868732, -0.013519556261599064, -0.04715520143508911, 0.059991542249917984, 0.00029742103652097285, -0.003000738564878702, -0.19847948849201202, 0.061638783663511276, -0.06740042567253113, 0.09358697384595871, 0.03715944290161133, -0.01451699435710907, 0.0398348905146122, 0.0726843997836113, 0.055332284420728683, 0.03561670333147049, -0.012330310419201851, -0.010231862775981426, 0.012748267501592636, 0.0861346498131752, 0.02246045507490635, -0.27314072847366333, 0.022269926965236664, 0.1148441731929779, 0.04646144434809685, -0.08839323371648788, 0.0076691759750247, -0.05174402520060539, 0.04864436760544777, -0.05409117415547371, 0.04498342424631119, -0.08544266223907471, -0.046802274882793427, -0.07275808602571487, 0.04934089630842209, 0.08217573910951614, 0.02208690717816353, 0.06410861760377884, 0.07659011334180832, 0.05331161618232727, -0.06032852455973625, 0.08953258395195007, 0.07742771506309509, -0.07753009349107742, -0.07331331819295883, -0.018332401290535927, 0.013297250494360924, 0.08134257793426514, 0.052128054201602936, -0.044687192887067795, 0.03411025553941727, 0.08050625026226044, -0.08786973357200623, 0.058004654943943024, 0.020896513015031815, 0.04644742235541344, -0.12182031571865082, -0.10155458003282547, -0.0966077595949173, -0.08866078406572342, 0.08564753830432892, -0.04119186848402023, 0.02220236323773861, 0.001390634337440133, 0.061528824269771576, -0.07609904557466507, 0.08016353100538254, -0.12440518289804459, -0.1209476962685585, -0.08382698893547058, 0.13762301206588745, -0.16505375504493713, -0.10387439280748367, -0.10406371206045151, -0.027361596003174782, -0.12599067389965057, -0.09520164132118225, -0.03375601768493652, 0.11923550069332123, -0.13672176003456116, 0.03929418325424194, 0.043786775320768356, -0.10425756126642227, -0.050768014043569565, -0.051240473985672, 0.1227550357580185, 0.029893552884459496, -0.0752117931842804, -0.1656034290790558, -0.05144798010587692, 0.0200948603451252, 0.059603895992040634, 0.10035298764705658, -0.02535688504576683, -0.10985681414604187, 0.058157339692115784, 0.05608636140823364, 0.005355359986424446, 0.027897192165255547, 0.041835565119981766, -0.020620891824364662, 0.025687647983431816, -0.01899670995771885, -0.20899853110313416, -0.058456551283597946, -0.03107709065079689, -0.08377619832754135, -0.038626085966825485, 0.09248171746730804, -0.09397437423467636, 0.043256815522909164, 0.06952600926160812, 0.12039025872945786, 0.06564938277006149, 0.06526101380586624, 0.03499341011047363, -0.07752223312854767, -0.010901056230068207, -0.0204885546118021], [-0.0027305330149829388, -0.06813923269510269, 0.10055491328239441, 0.03121221624314785, 0.020575571805238724, -0.02479669079184532, -0.06972642242908478, -0.005752544850111008, 0.09156443923711777, -0.031399812549352646, -0.02973450906574726, -0.08996418118476868, 0.07397688925266266, 0.00211327918805182, 0.06993237882852554, -0.08671314269304276, -0.013500516302883625, -0.07596531510353088, -0.004635862540453672, 0.012656163424253464, -0.031302522867918015, 0.061109691858291626, 0.0709456205368042, -0.01757141202688217, 0.04143042489886284, 0.10790009051561356, 0.08970921486616135, -0.039815567433834076, -0.046395644545555115, -0.10435418784618378, -0.05906066671013832, 0.010658863000571728, 0.036432601511478424, 0.0344817079603672, -0.007868887856602669, -0.09048691391944885, 0.0769505649805069, -0.1137266531586647, -0.07380363345146179, 0.07490256428718567, 0.01874696835875511, -0.011319542303681374, 0.06379729509353638, 0.06404844671487808, -0.10316070169210434, -0.06049642339348793, 0.05771324783563614, 0.05186919867992401, 0.08075667172670364, 0.07295507192611694, -0.022607455030083656, 0.038590721786022186, 0.041999805718660355, -0.06141173839569092, -0.029104609042406082, -0.035289354622364044, -0.08677501231431961, -0.11010890454053879, 0.010921052657067776, -0.1474534273147583, 0.052555542439222336, 0.06458499282598495, -0.07804914563894272, -0.04677744209766388, -0.17361299693584442, -0.06910060346126556, -0.0016124031972140074, -0.020312046632170677, 0.006790556013584137, 0.024502160027623177, 0.049038033932447433, -0.13627193868160248, 0.03780360519886017, -0.07373914122581482, -0.003929945174604654, 0.0036339054349809885, -0.07004687190055847, 0.05774858593940735, 0.02021816372871399, 0.015219671651721, -0.09214406460523605, -0.10326015949249268, -0.09086070954799652, -0.061636798083782196, 0.05628620833158493, 0.04910385236144066, 0.023395664989948273, 0.06019185110926628, 0.07348685711622238, -0.013019810430705547, 0.09219571948051453, 0.035258568823337555, -0.06236344575881958, 0.018449196591973305, -0.1567954570055008, 0.05722249671816826, 0.11777151376008987, -0.21138101816177368, 0.10271420329809189, -0.09209369122982025, -0.09335917234420776, -0.02703608013689518, 0.009940490126609802, -0.13754767179489136, -0.056329987943172455, -0.10197018086910248, -0.0700293630361557, -0.07295072078704834, -0.034545887261629105, -0.045399077236652374, -0.06557910889387131, -0.08283842355012894, -0.07953223586082458, -0.09085215628147125, -0.07037044316530228, 0.07586822658777237, 0.06164008751511574, 0.07002536952495575, -0.06978727877140045, -0.1215042993426323, 0.005852673668414354, -0.13068634271621704, -0.1209711804986, -0.0275509562343359, -0.05674200877547264, 0.021359974518418312, -0.11653739959001541, 0.03189777210354805], [-0.1548358052968979, 0.06894154846668243, -0.04686354473233223, -0.0646824985742569, -0.03145447000861168, 0.042706068605184555, -0.08890803158283234, 0.06767845898866653, 0.10475385934114456, -0.13448162376880646, 0.06507543474435806, 0.028842924162745476, 0.06611019372940063, -0.038514282554388046, -0.09520678967237473, -0.07196113467216492, 0.033669617027044296, -0.045303091406822205, 0.06147032603621483, 0.031027911230921745, -0.09853056818246841, 0.07204514741897583, -0.007574301678687334, -0.020804911851882935, -0.05105029419064522, 0.022722862660884857, 0.07667646557092667, 0.023545581847429276, 0.07690202444791794, 0.11174536496400833, -0.1306687742471695, 0.006840513087809086, -0.14493262767791748, -0.0638195127248764, 0.06687083840370178, 0.1031571477651596, -0.1200178861618042, -0.06658003479242325, -0.03591679036617279, -0.13840849697589874, 0.08716275542974472, -0.046041324734687805, -0.04743104428052902, -0.0012417749967426062, 0.03226422518491745, -0.05235794186592102, -0.11157617717981339, 0.06870336830615997, 0.07602095603942871, -0.14194269478321075, 0.03143423795700073, 0.044185932725667953, -0.11871152371168137, 0.07229719310998917, 0.08303337544202805, -0.05374709516763687, -0.07275587320327759, 0.04553908854722977, -0.02947162091732025, 0.1099129468202591, -0.07917299121618271, 0.06835176795721054, 0.02015761099755764, 0.0019802602473646402, 0.10788832604885101, -0.019792528823018074, 0.04510550573468208, 0.02024235390126705, 0.03583907708525658, -0.09598693996667862, -0.04453647509217262, -0.030479468405246735, 0.0837356299161911, 0.011438673362135887, 0.024128548800945282, 0.07092006504535675, -0.1418706476688385, -0.1222069263458252, -0.019538240507245064, 0.07565000653266907, -0.018792664632201195, 0.07072240114212036, 0.08270357549190521, -0.031893327832221985, 0.03765666484832764, -0.08036435395479202, -0.09296011179685593, 0.06535947322845459, -0.15901502966880798, -0.08668869733810425, 0.053392987698316574, 0.03732799366116524, -0.03669793903827667, 0.015615222044289112, -0.07795581966638565, 0.063565194606781, 0.02895333245396614, 0.07057800889015198, -0.08918105810880661, 0.07043313980102539, -0.11503024399280548, 0.013024904765188694, 0.009252787567675114, 0.025930296629667282, 0.08054360747337341, -0.03659124672412872, 0.022161133587360382, -0.030156567692756653, -0.10862267762422562, -0.05313117057085037, 0.02533295564353466, -0.009753488004207611, -0.11486801505088806, -0.054288435727357864, 0.0678194910287857, -0.05302349850535393, 0.007523562293499708, -0.067440927028656, -0.06489689648151398, 0.03853323683142662, 0.057661887258291245, -0.09908303618431091, 0.07563143968582153, -0.0544951856136322, -0.051497746258974075, 0.06094229221343994, 0.09387758374214172, 0.05533737689256668], [-0.2005893737077713, -0.1325656920671463, 0.056299809366464615, -0.03590970113873482, -0.012253065593540668, -0.08049041032791138, -0.0784033015370369, -0.09954072535037994, -0.044700030237436295, 0.057989880442619324, 0.0668986588716507, 0.08842767030000687, -0.04817185178399086, -0.07162927091121674, -0.08980727195739746, 0.04694943502545357, 0.058083876967430115, -0.014702266082167625, -0.05922479182481766, -0.0470518097281456, 0.0017261803150177002, 0.07881558686494827, -0.0187805388122797, -0.11464504152536392, -0.09094186872243881, -0.12411075085401535, 0.05746030434966087, -0.01006133109331131, -0.15589475631713867, 0.08533889055252075, -0.05067654699087143, -0.040500350296497345, -0.023129165172576904, 0.07449900358915329, 0.06165684387087822, -0.20875991880893707, -0.013407004065811634, 0.08172465115785599, 0.07753266394138336, -0.03789486363530159, 0.09483347088098526, -0.0046406090259552, -0.03291076421737671, -0.01693466491997242, -0.059107668697834015, -0.07717772573232651, 0.0677369236946106, 0.03359800577163696, -0.025384824723005295, -0.027995632961392403, -0.012815977446734905, 0.0024470582138746977, 0.10126320272684097, -0.0537838488817215, -0.07630813866853714, 0.014877628535032272, -0.08622142672538757, 0.018416794016957283, 0.06104262173175812, -0.03913130238652229, -0.10838187485933304, 0.01111893355846405, 0.002934884512796998, 0.1302650421857834, -0.020903099328279495, -0.05994923785328865, -0.04562627896666527, -0.05027051270008087, -0.03736324980854988, 0.025634905323386192, 0.06832563132047653, -0.06639499217271805, 0.044561054557561874, -0.10111436247825623, 0.032846059650182724, -0.09180638194084167, 0.03488944098353386, 0.06757152825593948, 0.0543559193611145, -0.0416470468044281, -0.02897833287715912, -0.01620389148592949, 0.10267192870378494, -0.02232634648680687, 0.08846157789230347, -0.0876428633928299, 0.06408596783876419, -0.026494046673178673, 0.052114032208919525, 0.007502901367843151, 0.0983012467622757, -0.14713166654109955, -0.04939114674925804, -0.07609019428491592, -0.07242907583713531, 0.06498774886131287, -0.05324152857065201, 0.12820400297641754, 0.04164562001824379, 0.04899625480175018, 0.026334838941693306, 0.09166157245635986, -0.053078655153512955, 0.035650838166475296, 0.06059741973876953, 0.0192769393324852, -0.04684966802597046, -0.044324085116386414, -0.04435146600008011, -0.05707712098956108, 0.03765823692083359, -0.008300268091261387, 0.06680648028850555, 0.06820221245288849, 0.0858345627784729, 0.0788194090127945, -0.048317570239305496, 0.06780144572257996, 0.10533656179904938, 0.006944072432816029, 0.026519449427723885, 0.007549742236733437, 0.05954015254974365, -0.03252553939819336, -0.019207770004868507, -0.12027742713689804, 0.03967585042119026, -0.02520703710615635], [0.06557507812976837, -0.05121222138404846, -0.02595548704266548, -0.00909770280122757, 0.06143996864557266, -0.07047521322965622, 0.1329522430896759, 0.07442735880613327, -0.18723900616168976, -0.07296696305274963, -0.01665496826171875, 0.01998574659228325, -0.01093151606619358, -0.07775232940912247, -0.14956679940223694, 0.12137039750814438, 0.06324254721403122, 0.016615504398941994, -0.003171677468344569, 0.05263160541653633, -0.016496991738677025, 0.049042005091905594, -0.02751171588897705, -0.03684573993086815, 0.07518290728330612, -0.1435443013906479, -0.17505186796188354, -0.0487915463745594, -0.1311560422182083, 0.008134483359754086, -0.04844210669398308, 0.027437258511781693, -0.007442787289619446, 0.034341856837272644, 0.012654386460781097, -0.09465833008289337, 0.03737400472164154, -0.07683310657739639, 0.05832217261195183, 0.09724549949169159, -0.059978701174259186, 0.04085524380207062, 0.04593643173575401, 0.031158536672592163, 0.10817024856805801, -0.00979074276983738, -0.07419602572917938, 0.07161394506692886, 0.08210637420415878, 0.0385882668197155, -0.09351762384176254, 0.005193601828068495, 0.03507748991250992, -0.028514372184872627, -0.07824750244617462, -0.026957634836435318, -0.10270293802022934, -0.05404651537537575, -0.08848822861909866, -0.014407442882657051, -0.12197767943143845, -0.0006205959361977875, -0.0844777524471283, -0.03383069112896919, 0.005457455758005381, -0.08901464194059372, 0.004288965370506048, -0.13824965059757233, -0.02711632288992405, -0.10309237986803055, -0.0794541984796524, 0.09274997562170029, 0.11218614876270294, -0.08846025913953781, -0.16948284208774567, 0.04701633006334305, 0.01547281350940466, -0.06689566373825073, 0.04257126897573471, -0.13481657207012177, -0.10601374506950378, 0.004932487849146128, -0.045875512063503265, -0.028429877012968063, -0.10986847430467606, 0.07664737850427628, 0.09540117532014847, -0.06172376126050949, 0.026706911623477936, 0.0386199876666069, -0.024841247126460075, -0.09559568017721176, 0.08130506426095963, 0.07641112804412842, -0.08324159681797028, 0.07463739067316055, 0.05997858941555023, -0.06780601292848587, -0.0696328654885292, -0.019640691578388214, -0.12284646928310394, -0.0670076385140419, 0.06211461126804352, -0.001427869196049869, 0.0666452944278717, 0.10423588752746582, -0.008681457489728928, 0.05014176666736603, -0.059992466121912, -0.02661856636404991, -0.020551305264234543, -0.01474379189312458, 0.06116325035691261, 0.023756111040711403, 0.038767822086811066, 0.044776126742362976, 0.03077666461467743, 0.10888271778821945, 0.03603474050760269, -0.05574799329042435, 0.06653254479169846, -0.06541231274604797, -0.029231885448098183, 0.06874223798513412, -0.07264503091573715, 0.08034974336624146, 0.14024564623832703, -0.024994999170303345], [-0.08667194098234177, 0.06987785547971725, 0.07767052948474884, -0.0646023228764534, 0.05082785338163376, -0.061690784990787506, -0.23205691576004028, 0.11584456264972687, 0.04217817634344101, 0.03952440246939659, -0.022586530074477196, 0.036659739911556244, 0.037026114761829376, 0.06455592811107635, -0.07349792867898941, 0.09920243918895721, -0.0402265302836895, -0.008807657286524773, 0.05145234242081642, 0.03519435599446297, -0.03360152989625931, -0.026146328076720238, -0.05634771287441254, 0.10985256731510162, 0.013610695488750935, 0.013330388814210892, 0.07485819607973099, -0.017689796164631844, 0.0050925156101584435, -0.12459974735975266, 0.10187114775180817, 0.0826582983136177, 0.06117096170783043, 0.04002782329916954, 0.012560105882585049, 0.10275977849960327, 0.032300882041454315, -0.06773100793361664, 0.026740694418549538, 0.010195252485573292, 0.12257179617881775, -0.022017236799001694, -0.00045436760410666466, -0.09738686680793762, 0.02759440429508686, -0.020797759294509888, 0.05657603219151497, 0.011061361990869045, -0.0687733143568039, -0.11548296362161636, 0.09110850095748901, 0.07146722823381424, -0.15954482555389404, 0.057500775903463364, 0.07956208288669586, 0.006720656529068947, -0.09536071866750717, -0.10254348069429398, 0.03659893944859505, 0.025301150977611542, 0.10965543985366821, -0.11616194993257523, -0.07353248447179794, 0.13309475779533386, -0.12111467123031616, 0.02796001359820366, -0.13686442375183105, -0.03908560797572136, -0.07507255673408508, 0.049648188054561615, 0.05842268094420433, 0.04486795514822006, -0.12085587531328201, 0.018370971083641052, 0.04834544658660889, 0.06175725534558296, -0.01602310873568058, -0.14403103291988373, 0.017910664901137352, -0.12331289798021317, -0.1004888191819191, 0.08138390630483627, 0.024924783036112785, -0.08312711864709854, -0.14844603836536407, -0.0627698302268982, 0.030736662447452545, -0.07969890534877777, -0.010682863183319569, 0.008788030594587326, 0.07408352196216583, 0.04052271693944931, 0.032896433025598526, 0.015878373757004738, 0.01341693103313446, 0.01464171800762415, 0.06347936391830444, -0.04322010651230812, 0.018354302272200584, 0.06466767936944962, 0.02266818657517433, -0.011121848598122597, -0.05202367156744003, -0.14523662626743317, -0.1556364744901657, -0.05835597589612007, 0.03929922729730606, 0.07386079430580139, 0.04988863319158554, -0.05616624280810356, 0.05240011215209961, 0.01784484088420868, 0.03340853378176689, -0.03662753477692604, -0.057775385677814484, -0.05433448404073715, -0.024541256949305534, -0.13507968187332153, -0.021035730838775635, 0.10557163506746292, 0.06044667959213257, 0.07354716956615448, -0.07811884582042694, 0.019336583092808723, 0.028299011290073395, 0.03920215740799904, -0.24319493770599365, -0.03503994271159172], [-0.15573987364768982, 0.07101236283779144, 0.06664800643920898, -0.09099544584751129, -0.03027449920773506, 0.025563985109329224, -0.005739246960729361, -0.1189761534333229, -0.06014544144272804, 0.06672697514295578, -0.08103350549936295, 0.0030450073536485434, 0.008367538452148438, 0.0530543327331543, 0.03931012749671936, -0.055238548666238785, 0.0654679387807846, 0.013037065975368023, 0.05024300515651703, 0.04491845518350601, -0.07759307324886322, -0.025454018265008926, -0.02394123002886772, -0.04383818805217743, -0.08892834931612015, -0.0008811097359284759, 0.018945615738630295, 0.02604415826499462, 0.0994812473654747, -0.067488893866539, -0.012634926475584507, 0.08028736710548401, -0.04531470686197281, -0.016119306907057762, 0.05282306298613548, -0.0057647801004350185, -0.08142166584730148, -0.12852881848812103, -0.06874975562095642, 0.03587109595537186, -0.037671174854040146, -0.07400041073560715, 0.02315560355782509, 0.07273832708597183, -0.029591556638479233, -0.05836827680468559, -0.0993194654583931, -0.04900207370519638, 0.09556783735752106, 0.09116949886083603, -0.01809746026992798, -0.02943277545273304, 0.10175439715385437, 0.04301455244421959, 0.07405812293291092, 0.046184442937374115, 0.10123014450073242, -0.07044091820716858, -0.053423505276441574, -0.14605851471424103, 0.0018679342465475202, -0.13899827003479004, -0.02672889642417431, -0.02844410575926304, 0.022202474996447563, 0.04186876118183136, 0.09293472766876221, 0.07027450203895569, 0.06807456910610199, -0.008572774939239025, 0.02783890999853611, 0.10228888690471649, 0.02085684984922409, -0.07189719378948212, -0.058984823524951935, 0.05105302855372429, 0.055070824921131134, -0.03921263664960861, -0.05307392030954361, 0.07918097078800201, 0.007074987981468439, 0.09103015810251236, -0.01716139167547226, -0.05681297183036804, 0.02877524495124817, -0.017740372568368912, 0.014834009110927582, 0.048617832362651825, 0.05985161289572716, -0.08167067915201187, 0.03664352744817734, 0.09301372617483139, 0.04399028792977333, 0.02156812511384487, -0.03663324937224388, 0.062462639063596725, -0.11642049998044968, -0.046260952949523926, -0.07205703109502792, -0.09019047021865845, -0.08441533893346786, -0.0034814688842743635, 0.006125039886683226, 0.09167362749576569, -0.022781480103731155, 0.09738963097333908, -0.0781216025352478, -0.019628476351499557, -0.15105555951595306, 0.019572433084249496, 0.03273718059062958, 0.1380620300769806, -0.08989734947681427, 0.004428873769938946, 0.013116920366883278, 0.042596299201250076, 0.057598695158958435, 0.03034215234220028, -0.137503981590271, -0.0901665911078453, 0.07387116551399231, -0.05379524454474449, -0.017457174137234688, -0.028546035289764404, -0.055936239659786224, -0.09447938948869705, -0.10319384932518005, -0.018558645620942116], [-0.056320954114198685, 0.005360700190067291, 0.005397852975875139, 0.027215812355279922, 0.08906201273202896, -0.003150328528136015, -0.07057801634073257, -0.02903658151626587, 0.10797880589962006, -0.10468481481075287, 0.002341141225770116, 0.07995884120464325, -0.07519735395908356, -0.06626002490520477, 0.09038280695676804, -0.005606112070381641, 0.007589608430862427, -0.07515783607959747, -0.027862653136253357, -0.06004195287823677, 0.08802010864019394, 0.00884110014885664, 0.032198820263147354, 0.06284463405609131, -0.12566961348056793, 0.08656170964241028, -0.0037121798377484083, -0.08218011260032654, 0.01866758055984974, -0.02735092304646969, 0.09792958945035934, 0.006442189682275057, -0.16722095012664795, -0.07957615703344345, 0.052533090114593506, -0.058176189661026, -0.07296515256166458, -0.02229362539947033, -0.03608253225684166, -0.11386574804782867, -0.09854259341955185, -0.07087385654449463, 0.04507341980934143, -0.09296242892742157, 0.1002809926867485, 0.052956223487854004, -0.08160743862390518, -0.05027870461344719, 0.05720730870962143, -0.028299376368522644, -0.10849011689424515, 0.012851323001086712, 0.0419217050075531, -0.05549884960055351, -0.06616233289241791, 0.030325915664434433, 0.10678702592849731, -0.08260499686002731, -0.0010214225621894002, -0.03162193298339844, 0.08413758873939514, 0.04758644849061966, -0.05344444513320923, 0.02851738967001438, -0.022573892027139664, 0.0234664436429739, 0.05019373074173927, 0.02228834666311741, 0.09034430235624313, 0.03575316444039345, -0.08162511885166168, 0.06141186133027077, -0.11058022081851959, 0.04328152537345886, 0.08225847780704498, 0.011471101082861423, -0.014004931785166264, -0.054548703134059906, -0.013911653310060501, 0.09280227869749069, 0.1009431853890419, 0.031008673831820488, -0.026549678295850754, 0.08150786906480789, 0.05650829151272774, 0.06894797831773758, 0.0567113421857357, -0.13914500176906586, -0.03887242451310158, 0.06011997163295746, 0.010837477631866932, 0.023917406797409058, 0.010402500629425049, -0.0036689380649477243, 0.01979868672788143, 0.04389536380767822, 0.03274178132414818, -0.008404399268329144, 0.06601998955011368, 0.05651213601231575, 0.046234581619501114, -0.15739166736602783, 0.027665607631206512, 0.06229330226778984, 0.019612755626440048, -0.08882651478052139, 0.008752482011914253, 0.04816766455769539, -0.10361876338720322, -0.038321685045957565, -0.007452459540218115, -0.09936819225549698, -0.031103242188692093, -0.07276110351085663, 0.08965989947319031, -0.0973370373249054, -0.07352780550718307, -0.059707317501306534, 0.02973412349820137, 0.08173669129610062, -0.028540190309286118, -0.13504423201084137, 0.0832943469285965, -0.010145607404410839, -0.034305937588214874, -0.12091031670570374, -0.06547672301530838, -0.06026260182261467]], "fc2_bias": [0.057602912187576294, -0.060243260115385056, 0.02254076488316059, -0.07559283077716827, 0.028273139148950577, -0.00346994586288929, 0.018562352284789085, -0.03217260167002678, 0.03235206380486488, -0.04300781711935997], "shape": [10, 128]}